tree
version=v3
num_class=1
num_tree_per_iteration=1
label_index=0
max_feature_idx=4
objective=regression
average_output
feature_names=UMAG VMAG GMAG RMAG IMAG
feature_infos=[11.100230569903808:21.655231765625491] [11.053237224408178:21.013353843974688] [10.635252952575684:18.811130523681641] [11.187288284301758:18.778682708740234] [11.609261512756348:18.631513595581051]
tree_sizes=2975 2975 2975 2975 2975 2965 2965 2965 2965 2965 2966 2966 2966 2966 2966 2983 2983 2983 2983 2983

Tree=0
num_leaves=32
num_cat=0
split_feature=0 1 0 4 4 0 1 4 1 0 4 4 4 4 4 4 1 4 1 4 1 4 0 4 4 1 1 4 4 0 1
split_gain=1.10068e+10 2.3483e+09 2.21714e+09 1.45897e+09 1.28758e+09 4.51765e+08 3.27502e+08 4.0141e+08 3.16141e+08 2.92213e+08 3.72713e+08 2.89923e+08 2.43455e+08 1.59958e+08 1.43665e+08 1.35223e+08 1.37979e+08 1.05853e+08 1.01552e+08 9.34257e+07 8.85904e+07 9.51907e+07 7.99821e+07 7.90839e+07 7.32612e+07 6.71847e+07 6.21287e+07 5.75257e+07 5.25002e+07 6.49278e+07 5.16223e+07
threshold=17.801776784644712 16.327779976410437 18.623122982336159 15.852247238159181 15.364726066589357 17.232096073967618 16.007394338389776 15.173374176025394 16.773907466482324 19.164501714362931 15.783996105194094 15.840272426605226 15.289600849151613 16.256113052368168 15.620263099670412 14.658529281616213 15.562588453292848 15.067491054534914 17.489406605393551 14.707104682922365 15.765963189303879 15.084437370300295 18.236293792724613 15.384684085845947 15.077550888061525 16.550870917501715 17.571884800086483 15.354926109313967 15.706103801727297 19.736684759005936 16.959442637871607
decision_type=2 2 2 2 2 2 2 2 2 2 2 2 2 2 2 2 2 2 2 2 2 2 2 2 2 2 2 2 2 2 2
left_child=1 6 3 12 5 17 15 19 14 10 27 30 18 -5 25 16 -1 -3 -2 -8 -17 -22 -14 -9 -7 -6 -15 -4 -11 -30 -10
right_child=2 4 9 13 8 24 7 23 11 28 -12 -13 22 26 -16 20 -18 -19 -20 -21 21 -23 -24 -25 -26 -27 -28 -29 29 -31 -32
leaf_value=6253.7274221725047 4968.280858533999 5499.9390351449592 4411.0024064155896 5491.1524739159104 6080.7016636092712 5196.4042391421935 5477.2202109706959 6159.2461363934908 5730.368326203009 4182.7238361365398 5165.3326998621642 6008.2145300985958 5252.7634757990654 6072.0436890572955 6257.6228288025095 6525.2171711054052 5795.8226004394928 5728.9405953155556 4678.1778990446282 5883.925967375314 6159.0329241010195 6488.6618395992127 4991.9127353531821 6471.4984746930013 5392.7005499784709 5825.2103920706413 5739.0345559593052 4698.787242265209 4682.1087231774127 4264.6982347488665 5536.5559303192958
leaf_weight=1783 2925 3306 1826 2249 1931 3430 629 2629 2536 1558 1288 3077 3280 889 2270 1949 1043 5183 2054 5535 2717 1293 1832 1173 4266 2204 1515 1121 653 868 3000
leaf_count=1783 2925 3306 1826 2249 1931 3430 629 2629 2536 1558 1288 3077 3280 889 2270 1949 1043 5183 2054 5535 2717 1293 1832 1173 4266 2204 1515 1121 653 868 3000
internal_value=5583.3 5844.43 4996.3 5219.6 5676.36 5480.68 6124.12 6000.04 5887.24 4546.16 4716.59 5762.12 5005.99 5682.85 6055.49 6264.89 6084.73 5639.76 4848.6 5842.42 6350.32 6265.32 5159.28 6255.58 5305.21 5944.52 5862.18 4520.47 4311.74 4443.9 5625.34
internal_weight=0 49954 22058 14744 31203 16185 18751 9966 15018 7314 4235 8613 10091 4653 6405 8785 2826 8489 4979 6164 5959 4010 5112 3802 7696 4135 2404 2947 3079 1521 5536
internal_count=72012 49954 22058 14744 31203 16185 18751 9966 15018 7314 4235 8613 10091 4653 6405 8785 2826 8489 4979 6164 5959 4010 5112 3802 7696 4135 2404 2947 3079 1521 5536
is_linear=0
shrinkage=1


Tree=1
num_leaves=32
num_cat=0
split_feature=0 1 0 4 4 0 1 4 1 0 4 4 4 4 4 4 1 4 1 4 1 4 0 4 4 1 1 4 4 0 1
split_gain=1.10068e+10 2.3483e+09 2.21714e+09 1.45897e+09 1.28758e+09 4.51765e+08 3.27502e+08 4.0141e+08 3.16141e+08 2.92213e+08 3.72713e+08 2.89923e+08 2.43455e+08 1.59958e+08 1.43665e+08 1.35223e+08 1.37979e+08 1.05853e+08 1.01552e+08 9.34257e+07 8.85904e+07 9.51907e+07 7.99821e+07 7.90839e+07 7.32612e+07 6.71847e+07 6.21287e+07 5.75257e+07 5.25002e+07 6.49278e+07 5.16223e+07
threshold=17.801776784644712 16.327779976410437 18.623122982336159 15.852247238159181 15.364726066589357 17.232096073967618 16.007394338389776 15.173374176025394 16.773907466482324 19.164501714362931 15.783996105194094 15.840272426605226 15.289600849151613 16.256113052368168 15.620263099670412 14.658529281616213 15.562588453292848 15.067491054534914 17.489406605393551 14.707104682922365 15.765963189303879 15.084437370300295 18.236293792724613 15.384684085845947 15.077550888061525 16.550870917501715 17.571884800086483 15.354926109313967 15.706103801727297 19.736684759005936 16.959442637871607
decision_type=2 2 2 2 2 2 2 2 2 2 2 2 2 2 2 2 2 2 2 2 2 2 2 2 2 2 2 2 2 2 2
left_child=1 6 3 12 5 17 15 19 14 10 27 30 18 -5 25 16 -1 -3 -2 -8 -17 -22 -14 -9 -7 -6 -15 -4 -11 -30 -10
right_child=2 4 9 13 8 24 7 23 11 28 -12 -13 22 26 -16 20 -18 -19 -20 -21 21 -23 -24 -25 -26 -27 -28 -29 29 -31 -32
leaf_value=6253.7274221725047 4968.280858533999 5499.9390351449592 4411.0024064155896 5491.1524739159104 6080.7016636092712 5196.4042391421935 5477.2202109706959 6159.2461363934908 5730.368326203009 4182.7238361365398 5165.3326998621642 6008.2145300985958 5252.7634757990654 6072.0436890572955 6257.6228288025095 6525.2171711054052 5795.8226004394928 5728.9405953155556 4678.1778990446282 5883.925967375314 6159.0329241010195 6488.6618395992127 4991.9127353531821 6471.4984746930013 5392.7005499784709 5825.2103920706413 5739.0345559593052 4698.787242265209 4682.1087231774127 4264.6982347488665 5536.5559303192958
leaf_weight=1783 2925 3306 1826 2249 1931 3430 629 2629 2536 1558 1288 3077 3280 889 2270 1949 1043 5183 2054 5535 2717 1293 1832 1173 4266 2204 1515 1121 653 868 3000
leaf_count=1783 2925 3306 1826 2249 1931 3430 629 2629 2536 1558 1288 3077 3280 889 2270 1949 1043 5183 2054 5535 2717 1293 1832 1173 4266 2204 1515 1121 653 868 3000
internal_value=5583.3 5844.43 4996.3 5219.6 5676.36 5480.68 6124.12 6000.04 5887.24 4546.16 4716.59 5762.12 5005.99 5682.85 6055.49 6264.89 6084.73 5639.76 4848.6 5842.42 6350.32 6265.32 5159.28 6255.58 5305.21 5944.52 5862.18 4520.47 4311.74 4443.9 5625.34
internal_weight=0 49954 22058 14744 31203 16185 18751 9966 15018 7314 4235 8613 10091 4653 6405 8785 2826 8489 4979 6164 5959 4010 5112 3802 7696 4135 2404 2947 3079 1521 5536
internal_count=72012 49954 22058 14744 31203 16185 18751 9966 15018 7314 4235 8613 10091 4653 6405 8785 2826 8489 4979 6164 5959 4010 5112 3802 7696 4135 2404 2947 3079 1521 5536
is_linear=0
shrinkage=1


Tree=2
num_leaves=32
num_cat=0
split_feature=0 1 0 4 4 0 1 4 1 0 4 4 4 4 4 4 1 4 1 4 1 4 0 4 4 1 1 4 4 0 1
split_gain=1.10068e+10 2.3483e+09 2.21714e+09 1.45897e+09 1.28758e+09 4.51765e+08 3.27502e+08 4.0141e+08 3.16141e+08 2.92213e+08 3.72713e+08 2.89923e+08 2.43455e+08 1.59958e+08 1.43665e+08 1.35223e+08 1.37979e+08 1.05853e+08 1.01552e+08 9.34257e+07 8.85904e+07 9.51907e+07 7.99821e+07 7.90839e+07 7.32612e+07 6.71847e+07 6.21287e+07 5.75257e+07 5.25002e+07 6.49278e+07 5.16223e+07
threshold=17.801776784644712 16.327779976410437 18.623122982336159 15.852247238159181 15.364726066589357 17.232096073967618 16.007394338389776 15.173374176025394 16.773907466482324 19.164501714362931 15.783996105194094 15.840272426605226 15.289600849151613 16.256113052368168 15.620263099670412 14.658529281616213 15.562588453292848 15.067491054534914 17.489406605393551 14.707104682922365 15.765963189303879 15.084437370300295 18.236293792724613 15.384684085845947 15.077550888061525 16.550870917501715 17.571884800086483 15.354926109313967 15.706103801727297 19.736684759005936 16.959442637871607
decision_type=2 2 2 2 2 2 2 2 2 2 2 2 2 2 2 2 2 2 2 2 2 2 2 2 2 2 2 2 2 2 2
left_child=1 6 3 12 5 17 15 19 14 10 27 30 18 -5 25 16 -1 -3 -2 -8 -17 -22 -14 -9 -7 -6 -15 -4 -11 -30 -10
right_child=2 4 9 13 8 24 7 23 11 28 -12 -13 22 26 -16 20 -18 -19 -20 -21 21 -23 -24 -25 -26 -27 -28 -29 29 -31 -32
leaf_value=6253.7274221725047 4968.280858533999 5499.9390351449592 4411.0024064155896 5491.1524739159104 6080.7016636092712 5196.4042391421935 5477.2202109706959 6159.2461363934908 5730.368326203009 4182.7238361365398 5165.3326998621642 6008.2145300985958 5252.7634757990654 6072.0436890572955 6257.6228288025095 6525.2171711054052 5795.8226004394928 5728.9405953155556 4678.1778990446282 5883.925967375314 6159.0329241010195 6488.6618395992127 4991.9127353531821 6471.4984746930013 5392.7005499784709 5825.2103920706413 5739.0345559593052 4698.787242265209 4682.1087231774127 4264.6982347488665 5536.5559303192958
leaf_weight=1783 2925 3306 1826 2249 1931 3430 629 2629 2536 1558 1288 3077 3280 889 2270 1949 1043 5183 2054 5535 2717 1293 1832 1173 4266 2204 1515 1121 653 868 3000
leaf_count=1783 2925 3306 1826 2249 1931 3430 629 2629 2536 1558 1288 3077 3280 889 2270 1949 1043 5183 2054 5535 2717 1293 1832 1173 4266 2204 1515 1121 653 868 3000
internal_value=5583.3 5844.43 4996.3 5219.6 5676.36 5480.68 6124.12 6000.04 5887.24 4546.16 4716.59 5762.12 5005.99 5682.85 6055.49 6264.89 6084.73 5639.76 4848.6 5842.42 6350.32 6265.32 5159.28 6255.58 5305.21 5944.52 5862.18 4520.47 4311.74 4443.9 5625.34
internal_weight=0 49954 22058 14744 31203 16185 18751 9966 15018 7314 4235 8613 10091 4653 6405 8785 2826 8489 4979 6164 5959 4010 5112 3802 7696 4135 2404 2947 3079 1521 5536
internal_count=72012 49954 22058 14744 31203 16185 18751 9966 15018 7314 4235 8613 10091 4653 6405 8785 2826 8489 4979 6164 5959 4010 5112 3802 7696 4135 2404 2947 3079 1521 5536
is_linear=0
shrinkage=1


Tree=3
num_leaves=32
num_cat=0
split_feature=0 1 0 4 4 0 1 4 1 0 4 4 4 4 4 4 1 4 1 4 1 4 0 4 4 1 1 4 4 0 1
split_gain=1.10068e+10 2.3483e+09 2.21714e+09 1.45897e+09 1.28758e+09 4.51765e+08 3.27502e+08 4.0141e+08 3.16141e+08 2.92213e+08 3.72713e+08 2.89923e+08 2.43455e+08 1.59958e+08 1.43665e+08 1.35223e+08 1.37979e+08 1.05853e+08 1.01552e+08 9.34257e+07 8.85904e+07 9.51907e+07 7.99821e+07 7.90839e+07 7.32612e+07 6.71847e+07 6.21287e+07 5.75257e+07 5.25002e+07 6.49278e+07 5.16223e+07
threshold=17.801776784644712 16.327779976410437 18.623122982336159 15.852247238159181 15.364726066589357 17.232096073967618 16.007394338389776 15.173374176025394 16.773907466482324 19.164501714362931 15.783996105194094 15.840272426605226 15.289600849151613 16.256113052368168 15.620263099670412 14.658529281616213 15.562588453292848 15.067491054534914 17.489406605393551 14.707104682922365 15.765963189303879 15.084437370300295 18.236293792724613 15.384684085845947 15.077550888061525 16.550870917501715 17.571884800086483 15.354926109313967 15.706103801727297 19.736684759005936 16.959442637871607
decision_type=2 2 2 2 2 2 2 2 2 2 2 2 2 2 2 2 2 2 2 2 2 2 2 2 2 2 2 2 2 2 2
left_child=1 6 3 12 5 17 15 19 14 10 27 30 18 -5 25 16 -1 -3 -2 -8 -17 -22 -14 -9 -7 -6 -15 -4 -11 -30 -10
right_child=2 4 9 13 8 24 7 23 11 28 -12 -13 22 26 -16 20 -18 -19 -20 -21 21 -23 -24 -25 -26 -27 -28 -29 29 -31 -32
leaf_value=6253.7274221725047 4968.280858533999 5499.9390351449592 4411.0024064155896 5491.1524739159104 6080.7016636092712 5196.4042391421935 5477.2202109706959 6159.2461363934908 5730.368326203009 4182.7238361365398 5165.3326998621642 6008.2145300985958 5252.7634757990654 6072.0436890572955 6257.6228288025095 6525.2171711054052 5795.8226004394928 5728.9405953155556 4678.1778990446282 5883.925967375314 6159.0329241010195 6488.6618395992127 4991.9127353531821 6471.4984746930013 5392.7005499784709 5825.2103920706413 5739.0345559593052 4698.787242265209 4682.1087231774127 4264.6982347488665 5536.5559303192958
leaf_weight=1783 2925 3306 1826 2249 1931 3430 629 2629 2536 1558 1288 3077 3280 889 2270 1949 1043 5183 2054 5535 2717 1293 1832 1173 4266 2204 1515 1121 653 868 3000
leaf_count=1783 2925 3306 1826 2249 1931 3430 629 2629 2536 1558 1288 3077 3280 889 2270 1949 1043 5183 2054 5535 2717 1293 1832 1173 4266 2204 1515 1121 653 868 3000
internal_value=5583.3 5844.43 4996.3 5219.6 5676.36 5480.68 6124.12 6000.04 5887.24 4546.16 4716.59 5762.12 5005.99 5682.85 6055.49 6264.89 6084.73 5639.76 4848.6 5842.42 6350.32 6265.32 5159.28 6255.58 5305.21 5944.52 5862.18 4520.47 4311.74 4443.9 5625.34
internal_weight=0 49954 22058 14744 31203 16185 18751 9966 15018 7314 4235 8613 10091 4653 6405 8785 2826 8489 4979 6164 5959 4010 5112 3802 7696 4135 2404 2947 3079 1521 5536
internal_count=72012 49954 22058 14744 31203 16185 18751 9966 15018 7314 4235 8613 10091 4653 6405 8785 2826 8489 4979 6164 5959 4010 5112 3802 7696 4135 2404 2947 3079 1521 5536
is_linear=0
shrinkage=1


Tree=4
num_leaves=32
num_cat=0
split_feature=0 1 0 4 4 0 1 4 1 0 4 4 4 4 4 4 1 4 1 4 1 4 0 4 4 1 1 4 4 0 1
split_gain=1.10068e+10 2.3483e+09 2.21714e+09 1.45897e+09 1.28758e+09 4.51765e+08 3.27502e+08 4.0141e+08 3.16141e+08 2.92213e+08 3.72713e+08 2.89923e+08 2.43455e+08 1.59958e+08 1.43665e+08 1.35223e+08 1.37979e+08 1.05853e+08 1.01552e+08 9.34257e+07 8.85904e+07 9.51907e+07 7.99821e+07 7.90839e+07 7.32612e+07 6.71847e+07 6.21287e+07 5.75257e+07 5.25002e+07 6.49278e+07 5.16223e+07
threshold=17.801776784644712 16.327779976410437 18.623122982336159 15.852247238159181 15.364726066589357 17.232096073967618 16.007394338389776 15.173374176025394 16.773907466482324 19.164501714362931 15.783996105194094 15.840272426605226 15.289600849151613 16.256113052368168 15.620263099670412 14.658529281616213 15.562588453292848 15.067491054534914 17.489406605393551 14.707104682922365 15.765963189303879 15.084437370300295 18.236293792724613 15.384684085845947 15.077550888061525 16.550870917501715 17.571884800086483 15.354926109313967 15.706103801727297 19.736684759005936 16.959442637871607
decision_type=2 2 2 2 2 2 2 2 2 2 2 2 2 2 2 2 2 2 2 2 2 2 2 2 2 2 2 2 2 2 2
left_child=1 6 3 12 5 17 15 19 14 10 27 30 18 -5 25 16 -1 -3 -2 -8 -17 -22 -14 -9 -7 -6 -15 -4 -11 -30 -10
right_child=2 4 9 13 8 24 7 23 11 28 -12 -13 22 26 -16 20 -18 -19 -20 -21 21 -23 -24 -25 -26 -27 -28 -29 29 -31 -32
leaf_value=6253.7274221725047 4968.280858533999 5499.9390351449592 4411.0024064155896 5491.1524739159104 6080.7016636092712 5196.4042391421935 5477.2202109706959 6159.2461363934908 5730.368326203009 4182.7238361365398 5165.3326998621642 6008.2145300985958 5252.7634757990654 6072.0436890572955 6257.6228288025095 6525.2171711054052 5795.8226004394928 5728.9405953155556 4678.1778990446282 5883.925967375314 6159.0329241010195 6488.6618395992127 4991.9127353531821 6471.4984746930013 5392.7005499784709 5825.2103920706413 5739.0345559593052 4698.787242265209 4682.1087231774127 4264.6982347488665 5536.5559303192958
leaf_weight=1783 2925 3306 1826 2249 1931 3430 629 2629 2536 1558 1288 3077 3280 889 2270 1949 1043 5183 2054 5535 2717 1293 1832 1173 4266 2204 1515 1121 653 868 3000
leaf_count=1783 2925 3306 1826 2249 1931 3430 629 2629 2536 1558 1288 3077 3280 889 2270 1949 1043 5183 2054 5535 2717 1293 1832 1173 4266 2204 1515 1121 653 868 3000
internal_value=5583.3 5844.43 4996.3 5219.6 5676.36 5480.68 6124.12 6000.04 5887.24 4546.16 4716.59 5762.12 5005.99 5682.85 6055.49 6264.89 6084.73 5639.76 4848.6 5842.42 6350.32 6265.32 5159.28 6255.58 5305.21 5944.52 5862.18 4520.47 4311.74 4443.9 5625.34
internal_weight=0 49954 22058 14744 31203 16185 18751 9966 15018 7314 4235 8613 10091 4653 6405 8785 2826 8489 4979 6164 5959 4010 5112 3802 7696 4135 2404 2947 3079 1521 5536
internal_count=72012 49954 22058 14744 31203 16185 18751 9966 15018 7314 4235 8613 10091 4653 6405 8785 2826 8489 4979 6164 5959 4010 5112 3802 7696 4135 2404 2947 3079 1521 5536
is_linear=0
shrinkage=1


Tree=5
num_leaves=32
num_cat=0
split_feature=0 1 0 4 4 0 1 4 1 4 4 4 0 4 4 1 4 4 4 1 0 4 1 4 4 1 0 1 1 4 1
split_gain=1.10146e+10 2.60304e+09 1.94352e+09 1.38523e+09 1.36972e+09 4.49311e+08 4.3728e+08 4.87753e+08 2.92046e+08 2.95123e+08 2.34351e+08 2.32493e+08 2.7131e+08 1.46069e+08 1.28985e+08 1.40203e+08 1.21045e+08 1.1934e+08 1.11766e+08 9.92403e+07 9.32524e+07 9.19339e+07 8.73898e+07 8.16571e+07 7.30085e+07 7.13299e+07 6.84967e+07 6.29766e+07 6.00215e+07 5.63492e+07 5.48355e+07
threshold=17.880754187703136 16.399053958269207 18.70610788325013 15.876917839050295 15.404662609100344 17.318668631673535 16.007394338389776 15.192241191864015 16.788613831071519 15.840272426605226 15.331180095672609 15.876917839050295 19.421173037145362 16.375535011291507 14.750471115112306 15.59938607148294 14.707104682922365 15.697511672973635 15.091604709625246 17.600058808922771 19.164501714362931 15.409950256347658 15.765963189303879 15.084437370300295 15.09505605697632 16.197019721583242 18.253405219279426 17.030079314338092 17.760523909379703 15.374881744384767 16.232192985713485
decision_type=2 2 2 2 2 2 2 2 2 2 2 2 2 2 2 2 2 2 2 2 2 2 2 2 2 2 2 2 2 2 2
left_child=1 6 3 10 5 18 14 16 17 27 19 20 -13 -5 15 -1 -8 -6 -3 -2 29 30 -16 -24 -7 -18 -12 -10 -15 -4 -9
right_child=2 4 11 13 8 24 7 21 9 -11 26 12 -14 28 22 -17 25 -19 -20 -21 -22 -23 23 -25 -26 -27 -28 -29 -30 -31 -32
leaf_value=6271.9427350136557 4917.0064436977354 5458.6676632977296 4383.099053005717 5485.3438455215837 5958.5130410474812 5153.5465291938008 5433.9974492712417 6276.2040644636154 5709.1336151299838 5977.9908891714012 5236.7789395211594 5102.725378559885 4379.7141422967261 6036.2930782005105 6558.28957381283 5852.8631046397095 5963.5179378529128 6292.6305057592344 5688.775061442856 4624.8372647028 4210.1402057526884 6433.8020457907633 6177.3884480817587 6487.0359773045966 5351.8620286462046 5762.1137603187044 4983.1031889202177 5492.8782384065826 5672.8490934938336 4689.5802016307334 6014.0650845162445
leaf_weight=2105 3146 3548 1532 2356 3898 3395 731 1469 2879 3584 2457 1165 936 950 1595 1286 3473 1473 5211 1844 1911 1497 2573 1273 4096 3562 1878 2530 871 986 1747
leaf_count=2105 3146 3548 1532 2356 3898 3395 731 1469 2879 3584 2457 1165 936 950 1595 1286 3473 1473 5211 1844 1911 1497 2573 1273 4096 3562 1878 2530 871 986 1747
internal_value=5583.3 5827.47 4954.55 5171.17 5640.66 5441.79 6095.82 5975.31 5865.64 5755.44 4956.8 4506.66 4780.62 5649.75 6266.09 6113.01 5821.3 6050.14 5595.57 4809.04 4376.7 6229.09 6361.49 6279.88 5261.98 5861.54 5126.88 5607.98 5862.45 4503.11 6133.8
internal_weight=0 51925 20032 13502 30614 16250 21311 12479 14364 8993 9325 6530 2101 4177 8832 3391 7766 5371 8759 4990 4429 4713 5441 3846 7491 7035 4335 5409 1821 2518 3216
internal_count=71957 51925 20032 13502 30614 16250 21311 12479 14364 8993 9325 6530 2101 4177 8832 3391 7766 5371 8759 4990 4429 4713 5441 3846 7491 7035 4335 5409 1821 2518 3216
is_linear=0
shrinkage=1


Tree=6
num_leaves=32
num_cat=0
split_feature=0 1 0 4 4 0 1 4 1 4 4 4 0 4 4 1 4 4 4 1 0 4 1 4 4 1 0 1 1 4 1
split_gain=1.10146e+10 2.60304e+09 1.94352e+09 1.38523e+09 1.36972e+09 4.49311e+08 4.3728e+08 4.87753e+08 2.92046e+08 2.95123e+08 2.34351e+08 2.32493e+08 2.7131e+08 1.46069e+08 1.28985e+08 1.40203e+08 1.21045e+08 1.1934e+08 1.11766e+08 9.92403e+07 9.32524e+07 9.19339e+07 8.73898e+07 8.16571e+07 7.30085e+07 7.13299e+07 6.84967e+07 6.29766e+07 6.00215e+07 5.63492e+07 5.48355e+07
threshold=17.880754187703136 16.399053958269207 18.70610788325013 15.876917839050295 15.404662609100344 17.318668631673535 16.007394338389776 15.192241191864015 16.788613831071519 15.840272426605226 15.331180095672609 15.876917839050295 19.421173037145362 16.375535011291507 14.750471115112306 15.59938607148294 14.707104682922365 15.697511672973635 15.091604709625246 17.600058808922771 19.164501714362931 15.409950256347658 15.765963189303879 15.084437370300295 15.09505605697632 16.197019721583242 18.253405219279426 17.030079314338092 17.760523909379703 15.374881744384767 16.232192985713485
decision_type=2 2 2 2 2 2 2 2 2 2 2 2 2 2 2 2 2 2 2 2 2 2 2 2 2 2 2 2 2 2 2
left_child=1 6 3 10 5 18 14 16 17 27 19 20 -13 -5 15 -1 -8 -6 -3 -2 29 30 -16 -24 -7 -18 -12 -10 -15 -4 -9
right_child=2 4 11 13 8 24 7 21 9 -11 26 12 -14 28 22 -17 25 -19 -20 -21 -22 -23 23 -25 -26 -27 -28 -29 -30 -31 -32
leaf_value=6271.9427350136557 4917.0064436977354 5458.6676632977296 4383.099053005717 5485.3438455215837 5958.5130410474812 5153.5465291938008 5433.9974492712417 6276.2040644636154 5709.1336151299838 5977.9908891714012 5236.7789395211594 5102.725378559885 4379.7141422967261 6036.2930782005105 6558.28957381283 5852.8631046397095 5963.5179378529128 6292.6305057592344 5688.775061442856 4624.8372647028 4210.1402057526884 6433.8020457907633 6177.3884480817587 6487.0359773045966 5351.8620286462046 5762.1137603187044 4983.1031889202177 5492.8782384065826 5672.8490934938336 4689.5802016307334 6014.0650845162445
leaf_weight=2105 3146 3548 1532 2356 3898 3395 731 1469 2879 3584 2457 1165 936 950 1595 1286 3473 1473 5211 1844 1911 1497 2573 1273 4096 3562 1878 2530 871 986 1747
leaf_count=2105 3146 3548 1532 2356 3898 3395 731 1469 2879 3584 2457 1165 936 950 1595 1286 3473 1473 5211 1844 1911 1497 2573 1273 4096 3562 1878 2530 871 986 1747
internal_value=5583.3 5827.47 4954.55 5171.17 5640.66 5441.79 6095.82 5975.31 5865.64 5755.44 4956.8 4506.66 4780.62 5649.75 6266.09 6113.01 5821.3 6050.14 5595.57 4809.04 4376.7 6229.09 6361.49 6279.88 5261.98 5861.54 5126.88 5607.98 5862.45 4503.11 6133.8
internal_weight=0 51925 20032 13502 30614 16250 21311 12479 14364 8993 9325 6530 2101 4177 8832 3391 7766 5371 8759 4990 4429 4713 5441 3846 7491 7035 4335 5409 1821 2518 3216
internal_count=71957 51925 20032 13502 30614 16250 21311 12479 14364 8993 9325 6530 2101 4177 8832 3391 7766 5371 8759 4990 4429 4713 5441 3846 7491 7035 4335 5409 1821 2518 3216
is_linear=0
shrinkage=1


Tree=7
num_leaves=32
num_cat=0
split_feature=0 1 0 4 4 0 1 4 1 4 4 4 0 4 4 1 4 4 4 1 0 4 1 4 4 1 0 1 1 4 1
split_gain=1.10146e+10 2.60304e+09 1.94352e+09 1.38523e+09 1.36972e+09 4.49311e+08 4.3728e+08 4.87753e+08 2.92046e+08 2.95123e+08 2.34351e+08 2.32493e+08 2.7131e+08 1.46069e+08 1.28985e+08 1.40203e+08 1.21045e+08 1.1934e+08 1.11766e+08 9.92403e+07 9.32524e+07 9.19339e+07 8.73898e+07 8.16571e+07 7.30085e+07 7.13299e+07 6.84967e+07 6.29766e+07 6.00215e+07 5.63492e+07 5.48355e+07
threshold=17.880754187703136 16.399053958269207 18.70610788325013 15.876917839050295 15.404662609100344 17.318668631673535 16.007394338389776 15.192241191864015 16.788613831071519 15.840272426605226 15.331180095672609 15.876917839050295 19.421173037145362 16.375535011291507 14.750471115112306 15.59938607148294 14.707104682922365 15.697511672973635 15.091604709625246 17.600058808922771 19.164501714362931 15.409950256347658 15.765963189303879 15.084437370300295 15.09505605697632 16.197019721583242 18.253405219279426 17.030079314338092 17.760523909379703 15.374881744384767 16.232192985713485
decision_type=2 2 2 2 2 2 2 2 2 2 2 2 2 2 2 2 2 2 2 2 2 2 2 2 2 2 2 2 2 2 2
left_child=1 6 3 10 5 18 14 16 17 27 19 20 -13 -5 15 -1 -8 -6 -3 -2 29 30 -16 -24 -7 -18 -12 -10 -15 -4 -9
right_child=2 4 11 13 8 24 7 21 9 -11 26 12 -14 28 22 -17 25 -19 -20 -21 -22 -23 23 -25 -26 -27 -28 -29 -30 -31 -32
leaf_value=6271.9427350136557 4917.0064436977354 5458.6676632977296 4383.099053005717 5485.3438455215837 5958.5130410474812 5153.5465291938008 5433.9974492712417 6276.2040644636154 5709.1336151299838 5977.9908891714012 5236.7789395211594 5102.725378559885 4379.7141422967261 6036.2930782005105 6558.28957381283 5852.8631046397095 5963.5179378529128 6292.6305057592344 5688.775061442856 4624.8372647028 4210.1402057526884 6433.8020457907633 6177.3884480817587 6487.0359773045966 5351.8620286462046 5762.1137603187044 4983.1031889202177 5492.8782384065826 5672.8490934938336 4689.5802016307334 6014.0650845162445
leaf_weight=2105 3146 3548 1532 2356 3898 3395 731 1469 2879 3584 2457 1165 936 950 1595 1286 3473 1473 5211 1844 1911 1497 2573 1273 4096 3562 1878 2530 871 986 1747
leaf_count=2105 3146 3548 1532 2356 3898 3395 731 1469 2879 3584 2457 1165 936 950 1595 1286 3473 1473 5211 1844 1911 1497 2573 1273 4096 3562 1878 2530 871 986 1747
internal_value=5583.3 5827.47 4954.55 5171.17 5640.66 5441.79 6095.82 5975.31 5865.64 5755.44 4956.8 4506.66 4780.62 5649.75 6266.09 6113.01 5821.3 6050.14 5595.57 4809.04 4376.7 6229.09 6361.49 6279.88 5261.98 5861.54 5126.88 5607.98 5862.45 4503.11 6133.8
internal_weight=0 51925 20032 13502 30614 16250 21311 12479 14364 8993 9325 6530 2101 4177 8832 3391 7766 5371 8759 4990 4429 4713 5441 3846 7491 7035 4335 5409 1821 2518 3216
internal_count=71957 51925 20032 13502 30614 16250 21311 12479 14364 8993 9325 6530 2101 4177 8832 3391 7766 5371 8759 4990 4429 4713 5441 3846 7491 7035 4335 5409 1821 2518 3216
is_linear=0
shrinkage=1


Tree=8
num_leaves=32
num_cat=0
split_feature=0 1 0 4 4 0 1 4 1 4 4 4 0 4 4 1 4 4 4 1 0 4 1 4 4 1 0 1 1 4 1
split_gain=1.10146e+10 2.60304e+09 1.94352e+09 1.38523e+09 1.36972e+09 4.49311e+08 4.3728e+08 4.87753e+08 2.92046e+08 2.95123e+08 2.34351e+08 2.32493e+08 2.7131e+08 1.46069e+08 1.28985e+08 1.40203e+08 1.21045e+08 1.1934e+08 1.11766e+08 9.92403e+07 9.32524e+07 9.19339e+07 8.73898e+07 8.16571e+07 7.30085e+07 7.13299e+07 6.84967e+07 6.29766e+07 6.00215e+07 5.63492e+07 5.48355e+07
threshold=17.880754187703136 16.399053958269207 18.70610788325013 15.876917839050295 15.404662609100344 17.318668631673535 16.007394338389776 15.192241191864015 16.788613831071519 15.840272426605226 15.331180095672609 15.876917839050295 19.421173037145362 16.375535011291507 14.750471115112306 15.59938607148294 14.707104682922365 15.697511672973635 15.091604709625246 17.600058808922771 19.164501714362931 15.409950256347658 15.765963189303879 15.084437370300295 15.09505605697632 16.197019721583242 18.253405219279426 17.030079314338092 17.760523909379703 15.374881744384767 16.232192985713485
decision_type=2 2 2 2 2 2 2 2 2 2 2 2 2 2 2 2 2 2 2 2 2 2 2 2 2 2 2 2 2 2 2
left_child=1 6 3 10 5 18 14 16 17 27 19 20 -13 -5 15 -1 -8 -6 -3 -2 29 30 -16 -24 -7 -18 -12 -10 -15 -4 -9
right_child=2 4 11 13 8 24 7 21 9 -11 26 12 -14 28 22 -17 25 -19 -20 -21 -22 -23 23 -25 -26 -27 -28 -29 -30 -31 -32
leaf_value=6271.9427350136557 4917.0064436977354 5458.6676632977296 4383.099053005717 5485.3438455215837 5958.5130410474812 5153.5465291938008 5433.9974492712417 6276.2040644636154 5709.1336151299838 5977.9908891714012 5236.7789395211594 5102.725378559885 4379.7141422967261 6036.2930782005105 6558.28957381283 5852.8631046397095 5963.5179378529128 6292.6305057592344 5688.775061442856 4624.8372647028 4210.1402057526884 6433.8020457907633 6177.3884480817587 6487.0359773045966 5351.8620286462046 5762.1137603187044 4983.1031889202177 5492.8782384065826 5672.8490934938336 4689.5802016307334 6014.0650845162445
leaf_weight=2105 3146 3548 1532 2356 3898 3395 731 1469 2879 3584 2457 1165 936 950 1595 1286 3473 1473 5211 1844 1911 1497 2573 1273 4096 3562 1878 2530 871 986 1747
leaf_count=2105 3146 3548 1532 2356 3898 3395 731 1469 2879 3584 2457 1165 936 950 1595 1286 3473 1473 5211 1844 1911 1497 2573 1273 4096 3562 1878 2530 871 986 1747
internal_value=5583.3 5827.47 4954.55 5171.17 5640.66 5441.79 6095.82 5975.31 5865.64 5755.44 4956.8 4506.66 4780.62 5649.75 6266.09 6113.01 5821.3 6050.14 5595.57 4809.04 4376.7 6229.09 6361.49 6279.88 5261.98 5861.54 5126.88 5607.98 5862.45 4503.11 6133.8
internal_weight=0 51925 20032 13502 30614 16250 21311 12479 14364 8993 9325 6530 2101 4177 8832 3391 7766 5371 8759 4990 4429 4713 5441 3846 7491 7035 4335 5409 1821 2518 3216
internal_count=71957 51925 20032 13502 30614 16250 21311 12479 14364 8993 9325 6530 2101 4177 8832 3391 7766 5371 8759 4990 4429 4713 5441 3846 7491 7035 4335 5409 1821 2518 3216
is_linear=0
shrinkage=1


Tree=9
num_leaves=32
num_cat=0
split_feature=0 1 0 4 4 0 1 4 1 4 4 4 0 4 4 1 4 4 4 1 0 4 1 4 4 1 0 1 1 4 1
split_gain=1.10146e+10 2.60304e+09 1.94352e+09 1.38523e+09 1.36972e+09 4.49311e+08 4.3728e+08 4.87753e+08 2.92046e+08 2.95123e+08 2.34351e+08 2.32493e+08 2.7131e+08 1.46069e+08 1.28985e+08 1.40203e+08 1.21045e+08 1.1934e+08 1.11766e+08 9.92403e+07 9.32524e+07 9.19339e+07 8.73898e+07 8.16571e+07 7.30085e+07 7.13299e+07 6.84967e+07 6.29766e+07 6.00215e+07 5.63492e+07 5.48355e+07
threshold=17.880754187703136 16.399053958269207 18.70610788325013 15.876917839050295 15.404662609100344 17.318668631673535 16.007394338389776 15.192241191864015 16.788613831071519 15.840272426605226 15.331180095672609 15.876917839050295 19.421173037145362 16.375535011291507 14.750471115112306 15.59938607148294 14.707104682922365 15.697511672973635 15.091604709625246 17.600058808922771 19.164501714362931 15.409950256347658 15.765963189303879 15.084437370300295 15.09505605697632 16.197019721583242 18.253405219279426 17.030079314338092 17.760523909379703 15.374881744384767 16.232192985713485
decision_type=2 2 2 2 2 2 2 2 2 2 2 2 2 2 2 2 2 2 2 2 2 2 2 2 2 2 2 2 2 2 2
left_child=1 6 3 10 5 18 14 16 17 27 19 20 -13 -5 15 -1 -8 -6 -3 -2 29 30 -16 -24 -7 -18 -12 -10 -15 -4 -9
right_child=2 4 11 13 8 24 7 21 9 -11 26 12 -14 28 22 -17 25 -19 -20 -21 -22 -23 23 -25 -26 -27 -28 -29 -30 -31 -32
leaf_value=6271.9427350136557 4917.0064436977354 5458.6676632977296 4383.099053005717 5485.3438455215837 5958.5130410474812 5153.5465291938008 5433.9974492712417 6276.2040644636154 5709.1336151299838 5977.9908891714012 5236.7789395211594 5102.725378559885 4379.7141422967261 6036.2930782005105 6558.28957381283 5852.8631046397095 5963.5179378529128 6292.6305057592344 5688.775061442856 4624.8372647028 4210.1402057526884 6433.8020457907633 6177.3884480817587 6487.0359773045966 5351.8620286462046 5762.1137603187044 4983.1031889202177 5492.8782384065826 5672.8490934938336 4689.5802016307334 6014.0650845162445
leaf_weight=2105 3146 3548 1532 2356 3898 3395 731 1469 2879 3584 2457 1165 936 950 1595 1286 3473 1473 5211 1844 1911 1497 2573 1273 4096 3562 1878 2530 871 986 1747
leaf_count=2105 3146 3548 1532 2356 3898 3395 731 1469 2879 3584 2457 1165 936 950 1595 1286 3473 1473 5211 1844 1911 1497 2573 1273 4096 3562 1878 2530 871 986 1747
internal_value=5583.3 5827.47 4954.55 5171.17 5640.66 5441.79 6095.82 5975.31 5865.64 5755.44 4956.8 4506.66 4780.62 5649.75 6266.09 6113.01 5821.3 6050.14 5595.57 4809.04 4376.7 6229.09 6361.49 6279.88 5261.98 5861.54 5126.88 5607.98 5862.45 4503.11 6133.8
internal_weight=0 51925 20032 13502 30614 16250 21311 12479 14364 8993 9325 6530 2101 4177 8832 3391 7766 5371 8759 4990 4429 4713 5441 3846 7491 7035 4335 5409 1821 2518 3216
internal_count=71957 51925 20032 13502 30614 16250 21311 12479 14364 8993 9325 6530 2101 4177 8832 3391 7766 5371 8759 4990 4429 4713 5441 3846 7491 7035 4335 5409 1821 2518 3216
is_linear=0
shrinkage=1


Tree=10
num_leaves=32
num_cat=0
split_feature=0 1 0 4 4 0 1 4 1 4 4 4 0 4 4 4 1 4 1 0 4 1 4 1 0 4 1 0 1 4 4
split_gain=1.10512e+10 2.5813e+09 1.95727e+09 1.39792e+09 1.34173e+09 5.04692e+08 3.75818e+08 3.59796e+08 3.26097e+08 3.97029e+08 2.37374e+08 2.22482e+08 2.70581e+08 1.67162e+08 1.45749e+08 1.28943e+08 1.37921e+08 9.94416e+07 9.91661e+07 9.5525e+07 9.06121e+07 8.5148e+07 8.38883e+07 7.9801e+07 7.57763e+07 7.43533e+07 7.0768e+07 5.78763e+07 5.70902e+07 5.51987e+07 5.10437e+07
threshold=17.880754187703136 16.327779976410437 18.70610788325013 15.876917839050295 15.326401233673097 17.310652582913107 16.788613831071519 15.840272426605226 16.007394338389776 15.176944255828859 15.289600849151613 15.876917839050295 19.508308481481603 15.61298990249634 16.284224510192875 14.750471115112306 15.59938607148294 15.070601463317873 17.600058808922771 19.164501714362931 14.707104682922365 15.765963189303879 15.10305166244507 16.550870917501715 18.236293792724613 15.384684085845947 17.030079314338092 17.612588732499958 17.677565604448322 15.374881744384767 16.098166465759281
decision_type=2 2 2 2 2 2 2 2 2 2 2 2 2 2 2 2 2 2 2 2 2 2 2 2 2 2 2 2 2 2 2
left_child=1 8 3 10 5 17 13 26 15 20 18 19 -13 23 -5 16 -1 -3 -2 29 -10 -17 -23 -6 -12 -11 -8 -7 -16 -4 -9
right_child=2 4 11 14 6 27 7 30 9 25 24 12 -14 -15 28 21 -18 -19 -20 -21 -22 22 -24 -25 -26 -27 -28 -29 -30 -31 -32
leaf_value=6268.7749043562981 4906.1053717075447 5479.577503829405 4389.2303062244137 5452.7696740669398 6048.743418691638 5314.9113937067532 5677.927034116773 5881.9318588590231 5477.4553721622442 6161.8587560017768 5230.0464626593648 5083.8757924185265 4352.8179212838986 6227.8198837113541 6011.2519218843318 6554.9458866697651 5851.2805393662293 5691.2484591765215 4603.4173645058354 4210.2965211665805 5884.5072619278972 6182.4977016307666 6505.8380968797919 5795.4769479598917 4977.2470226724308 6466.1777634114787 5467.7765554140005 5125.000162494267 5686.7989934047746 4694.1975161181972 6127.7233533626249
leaf_weight=2083 2973 3909 1552 1980 2305 3877 3480 2179 606 2535 2561 1194 879 2520 951 1580 1276 5135 1702 1936 5605 2687 1144 2703 2208 1175 2970 2738 1262 961 1380
leaf_count=2083 2973 3909 1552 1980 2305 3877 3480 2179 606 2535 2561 1194 879 2520 951 1580 1276 5135 1702 1936 5605 2687 1144 2703 2208 1175 2970 2738 1262 961 1380
internal_value=5583.3 5826.34 4953.88 5169.37 5658.98 5446.22 5848.95 5722 6123.59 5999.4 4956.03 4503.31 4773.89 6017.75 5649.87 6264.08 6110.18 5599.76 4795.91 4377.24 5844.79 6359.61 6279.05 5912.05 5113 6258.24 5581.16 5236.31 5826.23 4505.85 5977.24
internal_weight=0 51887 20159 13637 33196 15659 17537 10009 18691 9921 9444 6522 2073 7528 4193 8770 3359 9044 4675 4449 6211 5411 3831 5008 4769 3710 6450 6615 2213 2513 3559
internal_count=72046 51887 20159 13637 33196 15659 17537 10009 18691 9921 9444 6522 2073 7528 4193 8770 3359 9044 4675 4449 6211 5411 3831 5008 4769 3710 6450 6615 2213 2513 3559
is_linear=0
shrinkage=1


Tree=11
num_leaves=32
num_cat=0
split_feature=0 1 0 4 4 0 1 4 1 4 4 4 0 4 4 4 1 4 1 0 4 1 4 1 0 4 1 0 1 4 4
split_gain=1.10512e+10 2.5813e+09 1.95727e+09 1.39792e+09 1.34173e+09 5.04692e+08 3.75818e+08 3.59796e+08 3.26097e+08 3.97029e+08 2.37374e+08 2.22482e+08 2.70581e+08 1.67162e+08 1.45749e+08 1.28943e+08 1.37921e+08 9.94416e+07 9.91661e+07 9.5525e+07 9.06121e+07 8.5148e+07 8.38883e+07 7.9801e+07 7.57763e+07 7.43533e+07 7.0768e+07 5.78763e+07 5.70902e+07 5.51987e+07 5.10437e+07
threshold=17.880754187703136 16.327779976410437 18.70610788325013 15.876917839050295 15.326401233673097 17.310652582913107 16.788613831071519 15.840272426605226 16.007394338389776 15.176944255828859 15.289600849151613 15.876917839050295 19.508308481481603 15.61298990249634 16.284224510192875 14.750471115112306 15.59938607148294 15.070601463317873 17.600058808922771 19.164501714362931 14.707104682922365 15.765963189303879 15.10305166244507 16.550870917501715 18.236293792724613 15.384684085845947 17.030079314338092 17.612588732499958 17.677565604448322 15.374881744384767 16.098166465759281
decision_type=2 2 2 2 2 2 2 2 2 2 2 2 2 2 2 2 2 2 2 2 2 2 2 2 2 2 2 2 2 2 2
left_child=1 8 3 10 5 17 13 26 15 20 18 19 -13 23 -5 16 -1 -3 -2 29 -10 -17 -23 -6 -12 -11 -8 -7 -16 -4 -9
right_child=2 4 11 14 6 27 7 30 9 25 24 12 -14 -15 28 21 -18 -19 -20 -21 -22 22 -24 -25 -26 -27 -28 -29 -30 -31 -32
leaf_value=6268.7749043562981 4906.1053717075447 5479.577503829405 4389.2303062244137 5452.7696740669398 6048.743418691638 5314.9113937067532 5677.927034116773 5881.9318588590231 5477.4553721622442 6161.8587560017768 5230.0464626593648 5083.8757924185265 4352.8179212838986 6227.8198837113541 6011.2519218843318 6554.9458866697651 5851.2805393662293 5691.2484591765215 4603.4173645058354 4210.2965211665805 5884.5072619278972 6182.4977016307666 6505.8380968797919 5795.4769479598917 4977.2470226724308 6466.1777634114787 5467.7765554140005 5125.000162494267 5686.7989934047746 4694.1975161181972 6127.7233533626249
leaf_weight=2083 2973 3909 1552 1980 2305 3877 3480 2179 606 2535 2561 1194 879 2520 951 1580 1276 5135 1702 1936 5605 2687 1144 2703 2208 1175 2970 2738 1262 961 1380
leaf_count=2083 2973 3909 1552 1980 2305 3877 3480 2179 606 2535 2561 1194 879 2520 951 1580 1276 5135 1702 1936 5605 2687 1144 2703 2208 1175 2970 2738 1262 961 1380
internal_value=5583.3 5826.34 4953.88 5169.37 5658.98 5446.22 5848.95 5722 6123.59 5999.4 4956.03 4503.31 4773.89 6017.75 5649.87 6264.08 6110.18 5599.76 4795.91 4377.24 5844.79 6359.61 6279.05 5912.05 5113 6258.24 5581.16 5236.31 5826.23 4505.85 5977.24
internal_weight=0 51887 20159 13637 33196 15659 17537 10009 18691 9921 9444 6522 2073 7528 4193 8770 3359 9044 4675 4449 6211 5411 3831 5008 4769 3710 6450 6615 2213 2513 3559
internal_count=72046 51887 20159 13637 33196 15659 17537 10009 18691 9921 9444 6522 2073 7528 4193 8770 3359 9044 4675 4449 6211 5411 3831 5008 4769 3710 6450 6615 2213 2513 3559
is_linear=0
shrinkage=1


Tree=12
num_leaves=32
num_cat=0
split_feature=0 1 0 4 4 0 1 4 1 4 4 4 0 4 4 4 1 4 1 0 4 1 4 1 0 4 1 0 1 4 4
split_gain=1.10512e+10 2.5813e+09 1.95727e+09 1.39792e+09 1.34173e+09 5.04692e+08 3.75818e+08 3.59796e+08 3.26097e+08 3.97029e+08 2.37374e+08 2.22482e+08 2.70581e+08 1.67162e+08 1.45749e+08 1.28943e+08 1.37921e+08 9.94416e+07 9.91661e+07 9.5525e+07 9.06121e+07 8.5148e+07 8.38883e+07 7.9801e+07 7.57763e+07 7.43533e+07 7.0768e+07 5.78763e+07 5.70902e+07 5.51987e+07 5.10437e+07
threshold=17.880754187703136 16.327779976410437 18.70610788325013 15.876917839050295 15.326401233673097 17.310652582913107 16.788613831071519 15.840272426605226 16.007394338389776 15.176944255828859 15.289600849151613 15.876917839050295 19.508308481481603 15.61298990249634 16.284224510192875 14.750471115112306 15.59938607148294 15.070601463317873 17.600058808922771 19.164501714362931 14.707104682922365 15.765963189303879 15.10305166244507 16.550870917501715 18.236293792724613 15.384684085845947 17.030079314338092 17.612588732499958 17.677565604448322 15.374881744384767 16.098166465759281
decision_type=2 2 2 2 2 2 2 2 2 2 2 2 2 2 2 2 2 2 2 2 2 2 2 2 2 2 2 2 2 2 2
left_child=1 8 3 10 5 17 13 26 15 20 18 19 -13 23 -5 16 -1 -3 -2 29 -10 -17 -23 -6 -12 -11 -8 -7 -16 -4 -9
right_child=2 4 11 14 6 27 7 30 9 25 24 12 -14 -15 28 21 -18 -19 -20 -21 -22 22 -24 -25 -26 -27 -28 -29 -30 -31 -32
leaf_value=6268.7749043562981 4906.1053717075447 5479.577503829405 4389.2303062244137 5452.7696740669398 6048.743418691638 5314.9113937067532 5677.927034116773 5881.9318588590231 5477.4553721622442 6161.8587560017768 5230.0464626593648 5083.8757924185265 4352.8179212838986 6227.8198837113541 6011.2519218843318 6554.9458866697651 5851.2805393662293 5691.2484591765215 4603.4173645058354 4210.2965211665805 5884.5072619278972 6182.4977016307666 6505.8380968797919 5795.4769479598917 4977.2470226724308 6466.1777634114787 5467.7765554140005 5125.000162494267 5686.7989934047746 4694.1975161181972 6127.7233533626249
leaf_weight=2083 2973 3909 1552 1980 2305 3877 3480 2179 606 2535 2561 1194 879 2520 951 1580 1276 5135 1702 1936 5605 2687 1144 2703 2208 1175 2970 2738 1262 961 1380
leaf_count=2083 2973 3909 1552 1980 2305 3877 3480 2179 606 2535 2561 1194 879 2520 951 1580 1276 5135 1702 1936 5605 2687 1144 2703 2208 1175 2970 2738 1262 961 1380
internal_value=5583.3 5826.34 4953.88 5169.37 5658.98 5446.22 5848.95 5722 6123.59 5999.4 4956.03 4503.31 4773.89 6017.75 5649.87 6264.08 6110.18 5599.76 4795.91 4377.24 5844.79 6359.61 6279.05 5912.05 5113 6258.24 5581.16 5236.31 5826.23 4505.85 5977.24
internal_weight=0 51887 20159 13637 33196 15659 17537 10009 18691 9921 9444 6522 2073 7528 4193 8770 3359 9044 4675 4449 6211 5411 3831 5008 4769 3710 6450 6615 2213 2513 3559
internal_count=72046 51887 20159 13637 33196 15659 17537 10009 18691 9921 9444 6522 2073 7528 4193 8770 3359 9044 4675 4449 6211 5411 3831 5008 4769 3710 6450 6615 2213 2513 3559
is_linear=0
shrinkage=1


Tree=13
num_leaves=32
num_cat=0
split_feature=0 1 0 4 4 0 1 4 1 4 4 4 0 4 4 4 1 4 1 0 4 1 4 1 0 4 1 0 1 4 4
split_gain=1.10512e+10 2.5813e+09 1.95727e+09 1.39792e+09 1.34173e+09 5.04692e+08 3.75818e+08 3.59796e+08 3.26097e+08 3.97029e+08 2.37374e+08 2.22482e+08 2.70581e+08 1.67162e+08 1.45749e+08 1.28943e+08 1.37921e+08 9.94416e+07 9.91661e+07 9.5525e+07 9.06121e+07 8.5148e+07 8.38883e+07 7.9801e+07 7.57763e+07 7.43533e+07 7.0768e+07 5.78763e+07 5.70902e+07 5.51987e+07 5.10437e+07
threshold=17.880754187703136 16.327779976410437 18.70610788325013 15.876917839050295 15.326401233673097 17.310652582913107 16.788613831071519 15.840272426605226 16.007394338389776 15.176944255828859 15.289600849151613 15.876917839050295 19.508308481481603 15.61298990249634 16.284224510192875 14.750471115112306 15.59938607148294 15.070601463317873 17.600058808922771 19.164501714362931 14.707104682922365 15.765963189303879 15.10305166244507 16.550870917501715 18.236293792724613 15.384684085845947 17.030079314338092 17.612588732499958 17.677565604448322 15.374881744384767 16.098166465759281
decision_type=2 2 2 2 2 2 2 2 2 2 2 2 2 2 2 2 2 2 2 2 2 2 2 2 2 2 2 2 2 2 2
left_child=1 8 3 10 5 17 13 26 15 20 18 19 -13 23 -5 16 -1 -3 -2 29 -10 -17 -23 -6 -12 -11 -8 -7 -16 -4 -9
right_child=2 4 11 14 6 27 7 30 9 25 24 12 -14 -15 28 21 -18 -19 -20 -21 -22 22 -24 -25 -26 -27 -28 -29 -30 -31 -32
leaf_value=6268.7749043562981 4906.1053717075447 5479.577503829405 4389.2303062244137 5452.7696740669398 6048.743418691638 5314.9113937067532 5677.927034116773 5881.9318588590231 5477.4553721622442 6161.8587560017768 5230.0464626593648 5083.8757924185265 4352.8179212838986 6227.8198837113541 6011.2519218843318 6554.9458866697651 5851.2805393662293 5691.2484591765215 4603.4173645058354 4210.2965211665805 5884.5072619278972 6182.4977016307666 6505.8380968797919 5795.4769479598917 4977.2470226724308 6466.1777634114787 5467.7765554140005 5125.000162494267 5686.7989934047746 4694.1975161181972 6127.7233533626249
leaf_weight=2083 2973 3909 1552 1980 2305 3877 3480 2179 606 2535 2561 1194 879 2520 951 1580 1276 5135 1702 1936 5605 2687 1144 2703 2208 1175 2970 2738 1262 961 1380
leaf_count=2083 2973 3909 1552 1980 2305 3877 3480 2179 606 2535 2561 1194 879 2520 951 1580 1276 5135 1702 1936 5605 2687 1144 2703 2208 1175 2970 2738 1262 961 1380
internal_value=5583.3 5826.34 4953.88 5169.37 5658.98 5446.22 5848.95 5722 6123.59 5999.4 4956.03 4503.31 4773.89 6017.75 5649.87 6264.08 6110.18 5599.76 4795.91 4377.24 5844.79 6359.61 6279.05 5912.05 5113 6258.24 5581.16 5236.31 5826.23 4505.85 5977.24
internal_weight=0 51887 20159 13637 33196 15659 17537 10009 18691 9921 9444 6522 2073 7528 4193 8770 3359 9044 4675 4449 6211 5411 3831 5008 4769 3710 6450 6615 2213 2513 3559
internal_count=72046 51887 20159 13637 33196 15659 17537 10009 18691 9921 9444 6522 2073 7528 4193 8770 3359 9044 4675 4449 6211 5411 3831 5008 4769 3710 6450 6615 2213 2513 3559
is_linear=0
shrinkage=1


Tree=14
num_leaves=32
num_cat=0
split_feature=0 1 0 4 4 0 1 4 1 4 4 4 0 4 4 4 1 4 1 0 4 1 4 1 0 4 1 0 1 4 4
split_gain=1.10512e+10 2.5813e+09 1.95727e+09 1.39792e+09 1.34173e+09 5.04692e+08 3.75818e+08 3.59796e+08 3.26097e+08 3.97029e+08 2.37374e+08 2.22482e+08 2.70581e+08 1.67162e+08 1.45749e+08 1.28943e+08 1.37921e+08 9.94416e+07 9.91661e+07 9.5525e+07 9.06121e+07 8.5148e+07 8.38883e+07 7.9801e+07 7.57763e+07 7.43533e+07 7.0768e+07 5.78763e+07 5.70902e+07 5.51987e+07 5.10437e+07
threshold=17.880754187703136 16.327779976410437 18.70610788325013 15.876917839050295 15.326401233673097 17.310652582913107 16.788613831071519 15.840272426605226 16.007394338389776 15.176944255828859 15.289600849151613 15.876917839050295 19.508308481481603 15.61298990249634 16.284224510192875 14.750471115112306 15.59938607148294 15.070601463317873 17.600058808922771 19.164501714362931 14.707104682922365 15.765963189303879 15.10305166244507 16.550870917501715 18.236293792724613 15.384684085845947 17.030079314338092 17.612588732499958 17.677565604448322 15.374881744384767 16.098166465759281
decision_type=2 2 2 2 2 2 2 2 2 2 2 2 2 2 2 2 2 2 2 2 2 2 2 2 2 2 2 2 2 2 2
left_child=1 8 3 10 5 17 13 26 15 20 18 19 -13 23 -5 16 -1 -3 -2 29 -10 -17 -23 -6 -12 -11 -8 -7 -16 -4 -9
right_child=2 4 11 14 6 27 7 30 9 25 24 12 -14 -15 28 21 -18 -19 -20 -21 -22 22 -24 -25 -26 -27 -28 -29 -30 -31 -32
leaf_value=6268.7749043562981 4906.1053717075447 5479.577503829405 4389.2303062244137 5452.7696740669398 6048.743418691638 5314.9113937067532 5677.927034116773 5881.9318588590231 5477.4553721622442 6161.8587560017768 5230.0464626593648 5083.8757924185265 4352.8179212838986 6227.8198837113541 6011.2519218843318 6554.9458866697651 5851.2805393662293 5691.2484591765215 4603.4173645058354 4210.2965211665805 5884.5072619278972 6182.4977016307666 6505.8380968797919 5795.4769479598917 4977.2470226724308 6466.1777634114787 5467.7765554140005 5125.000162494267 5686.7989934047746 4694.1975161181972 6127.7233533626249
leaf_weight=2083 2973 3909 1552 1980 2305 3877 3480 2179 606 2535 2561 1194 879 2520 951 1580 1276 5135 1702 1936 5605 2687 1144 2703 2208 1175 2970 2738 1262 961 1380
leaf_count=2083 2973 3909 1552 1980 2305 3877 3480 2179 606 2535 2561 1194 879 2520 951 1580 1276 5135 1702 1936 5605 2687 1144 2703 2208 1175 2970 2738 1262 961 1380
internal_value=5583.3 5826.34 4953.88 5169.37 5658.98 5446.22 5848.95 5722 6123.59 5999.4 4956.03 4503.31 4773.89 6017.75 5649.87 6264.08 6110.18 5599.76 4795.91 4377.24 5844.79 6359.61 6279.05 5912.05 5113 6258.24 5581.16 5236.31 5826.23 4505.85 5977.24
internal_weight=0 51887 20159 13637 33196 15659 17537 10009 18691 9921 9444 6522 2073 7528 4193 8770 3359 9044 4675 4449 6211 5411 3831 5008 4769 3710 6450 6615 2213 2513 3559
internal_count=72046 51887 20159 13637 33196 15659 17537 10009 18691 9921 9444 6522 2073 7528 4193 8770 3359 9044 4675 4449 6211 5411 3831 5008 4769 3710 6450 6615 2213 2513 3559
is_linear=0
shrinkage=1


Tree=15
num_leaves=32
num_cat=0
split_feature=0 1 0 4 4 0 1 4 1 4 4 0 4 4 4 4 4 1 0 4 1 4 1 1 1 0 4 0 1 1 4
split_gain=1.1113e+10 2.6073e+09 1.95973e+09 1.35513e+09 1.3449e+09 5.19114e+08 3.74449e+08 3.58117e+08 3.34569e+08 4.18835e+08 2.54017e+08 2.74028e+08 2.48763e+08 1.53801e+08 1.33379e+08 1.24804e+08 1.11425e+08 1.08332e+08 1.05177e+08 1.04557e+08 9.38301e+07 8.83437e+07 7.73025e+07 7.09306e+07 6.91993e+07 6.51568e+07 6.44091e+07 6.11152e+07 5.68155e+07 5.61149e+07 5.46667e+07
threshold=17.880754187703136 16.327779976410437 18.676456697285179 15.916282176971437 15.345208168029787 17.310652582913107 16.773907466482324 15.840272426605226 15.932935263426915 15.138983249664308 15.916282176971437 19.421173037145362 15.331180095672609 15.620263099670412 14.750471115112306 16.375535011291507 15.070601463317873 15.59938607148294 19.164501714362931 14.683363914489748 17.600058808922771 15.384684085845947 17.020861145506572 16.550870917501715 16.104561645671367 18.236293792724613 15.354926109313967 17.622865825478566 16.133639423042876 17.063917563201311 16.164961814880375
decision_type=2 2 2 2 2 2 2 2 2 2 2 2 2 2 2 2 2 2 2 2 2 2 2 2 2 2 2 2 2 2 2
left_child=1 8 3 12 5 16 13 22 14 19 18 -12 20 23 17 -5 -3 -1 26 -10 -2 28 -8 -6 -21 -14 -4 -7 -11 -9 -31
right_child=2 4 10 15 6 27 7 29 9 21 11 -13 25 -15 -16 -17 -18 -19 -20 24 -22 -23 -24 -25 -26 -27 -28 -29 -30 30 -32
leaf_value=6276.6413884079611 4918.4172115203983 5478.3691740255781 4390.9163064090963 5509.9020480928411 6066.1343310010525 5319.9341156626224 5695.0763713541473 6131.3355599048118 5502.7833235577018 6326.3046847710439 5131.4102961988347 4392.6573197133112 5247.9281991893686 6252.2442823598649 6420.0247435819492 5869.3384537191914 5698.4671158005685 5886.0669667299608 4219.6150469321565 6029.1887379194131 4629.5932674685082 6479.2145654190235 5475.0971717333941 5815.0560258483374 5813.562195498037 5006.2135949620379 4701.9688821384598 5125.7759886185504 6068.3937676376991 5758.5214499952053 6092.2814968092753
leaf_weight=2100 3178 3954 1610 2134 2119 4171 3454 1532 723 1395 1164 883 2524 2262 3941 1765 5499 1073 2037 2584 1741 1226 2972 2399 3510 1998 1135 2652 2203 1347 772
leaf_count=2100 3178 3954 1610 2134 2119 4171 3454 1532 723 1395 1164 883 2524 2262 3941 1765 5499 1073 2037 2584 1741 1226 2972 2399 3510 1998 1135 2652 2203 1347 772
internal_value=5583.3 5828.37 4953.63 5176.65 5659.72 5454.68 5857.68 5735.43 6126.31 6021.9 4517.96 4812.74 4971.83 6039.39 6297.16 5672.61 5606.4 6144.56 4391.77 5862.34 4816.19 6247.38 5593.34 5932.81 5904.99 5141.13 4519.53 5244.47 6168.39 5985.53 5880.12
internal_weight=0 51888 20169 13340 33133 16276 16857 10077 18755 11641 6829 2047 9441 6780 7114 3899 9453 3173 4782 6817 4919 4824 6426 4518 6094 4522 2745 6823 3598 3651 2119
internal_count=72057 51888 20169 13340 33133 16276 16857 10077 18755 11641 6829 2047 9441 6780 7114 3899 9453 3173 4782 6817 4919 4824 6426 4518 6094 4522 2745 6823 3598 3651 2119
is_linear=0
shrinkage=1


Tree=16
num_leaves=32
num_cat=0
split_feature=0 1 0 4 4 0 1 4 1 4 4 0 4 4 4 4 4 1 0 4 1 4 1 1 1 0 4 0 1 1 4
split_gain=1.1113e+10 2.6073e+09 1.95973e+09 1.35513e+09 1.3449e+09 5.19114e+08 3.74449e+08 3.58117e+08 3.34569e+08 4.18835e+08 2.54017e+08 2.74028e+08 2.48763e+08 1.53801e+08 1.33379e+08 1.24804e+08 1.11425e+08 1.08332e+08 1.05177e+08 1.04557e+08 9.38301e+07 8.83437e+07 7.73025e+07 7.09306e+07 6.91993e+07 6.51568e+07 6.44091e+07 6.11152e+07 5.68155e+07 5.61149e+07 5.46667e+07
threshold=17.880754187703136 16.327779976410437 18.676456697285179 15.916282176971437 15.345208168029787 17.310652582913107 16.773907466482324 15.840272426605226 15.932935263426915 15.138983249664308 15.916282176971437 19.421173037145362 15.331180095672609 15.620263099670412 14.750471115112306 16.375535011291507 15.070601463317873 15.59938607148294 19.164501714362931 14.683363914489748 17.600058808922771 15.384684085845947 17.020861145506572 16.550870917501715 16.104561645671367 18.236293792724613 15.354926109313967 17.622865825478566 16.133639423042876 17.063917563201311 16.164961814880375
decision_type=2 2 2 2 2 2 2 2 2 2 2 2 2 2 2 2 2 2 2 2 2 2 2 2 2 2 2 2 2 2 2
left_child=1 8 3 12 5 16 13 22 14 19 18 -12 20 23 17 -5 -3 -1 26 -10 -2 28 -8 -6 -21 -14 -4 -7 -11 -9 -31
right_child=2 4 10 15 6 27 7 29 9 21 11 -13 25 -15 -16 -17 -18 -19 -20 24 -22 -23 -24 -25 -26 -27 -28 -29 -30 30 -32
leaf_value=6276.6413884079611 4918.4172115203983 5478.3691740255781 4390.9163064090963 5509.9020480928411 6066.1343310010525 5319.9341156626224 5695.0763713541473 6131.3355599048118 5502.7833235577018 6326.3046847710439 5131.4102961988347 4392.6573197133112 5247.9281991893686 6252.2442823598649 6420.0247435819492 5869.3384537191914 5698.4671158005685 5886.0669667299608 4219.6150469321565 6029.1887379194131 4629.5932674685082 6479.2145654190235 5475.0971717333941 5815.0560258483374 5813.562195498037 5006.2135949620379 4701.9688821384598 5125.7759886185504 6068.3937676376991 5758.5214499952053 6092.2814968092753
leaf_weight=2100 3178 3954 1610 2134 2119 4171 3454 1532 723 1395 1164 883 2524 2262 3941 1765 5499 1073 2037 2584 1741 1226 2972 2399 3510 1998 1135 2652 2203 1347 772
leaf_count=2100 3178 3954 1610 2134 2119 4171 3454 1532 723 1395 1164 883 2524 2262 3941 1765 5499 1073 2037 2584 1741 1226 2972 2399 3510 1998 1135 2652 2203 1347 772
internal_value=5583.3 5828.37 4953.63 5176.65 5659.72 5454.68 5857.68 5735.43 6126.31 6021.9 4517.96 4812.74 4971.83 6039.39 6297.16 5672.61 5606.4 6144.56 4391.77 5862.34 4816.19 6247.38 5593.34 5932.81 5904.99 5141.13 4519.53 5244.47 6168.39 5985.53 5880.12
internal_weight=0 51888 20169 13340 33133 16276 16857 10077 18755 11641 6829 2047 9441 6780 7114 3899 9453 3173 4782 6817 4919 4824 6426 4518 6094 4522 2745 6823 3598 3651 2119
internal_count=72057 51888 20169 13340 33133 16276 16857 10077 18755 11641 6829 2047 9441 6780 7114 3899 9453 3173 4782 6817 4919 4824 6426 4518 6094 4522 2745 6823 3598 3651 2119
is_linear=0
shrinkage=1


Tree=17
num_leaves=32
num_cat=0
split_feature=0 1 0 4 4 0 1 4 1 4 4 0 4 4 4 4 4 1 0 4 1 4 1 1 1 0 4 0 1 1 4
split_gain=1.1113e+10 2.6073e+09 1.95973e+09 1.35513e+09 1.3449e+09 5.19114e+08 3.74449e+08 3.58117e+08 3.34569e+08 4.18835e+08 2.54017e+08 2.74028e+08 2.48763e+08 1.53801e+08 1.33379e+08 1.24804e+08 1.11425e+08 1.08332e+08 1.05177e+08 1.04557e+08 9.38301e+07 8.83437e+07 7.73025e+07 7.09306e+07 6.91993e+07 6.51568e+07 6.44091e+07 6.11152e+07 5.68155e+07 5.61149e+07 5.46667e+07
threshold=17.880754187703136 16.327779976410437 18.676456697285179 15.916282176971437 15.345208168029787 17.310652582913107 16.773907466482324 15.840272426605226 15.932935263426915 15.138983249664308 15.916282176971437 19.421173037145362 15.331180095672609 15.620263099670412 14.750471115112306 16.375535011291507 15.070601463317873 15.59938607148294 19.164501714362931 14.683363914489748 17.600058808922771 15.384684085845947 17.020861145506572 16.550870917501715 16.104561645671367 18.236293792724613 15.354926109313967 17.622865825478566 16.133639423042876 17.063917563201311 16.164961814880375
decision_type=2 2 2 2 2 2 2 2 2 2 2 2 2 2 2 2 2 2 2 2 2 2 2 2 2 2 2 2 2 2 2
left_child=1 8 3 12 5 16 13 22 14 19 18 -12 20 23 17 -5 -3 -1 26 -10 -2 28 -8 -6 -21 -14 -4 -7 -11 -9 -31
right_child=2 4 10 15 6 27 7 29 9 21 11 -13 25 -15 -16 -17 -18 -19 -20 24 -22 -23 -24 -25 -26 -27 -28 -29 -30 30 -32
leaf_value=6276.6413884079611 4918.4172115203983 5478.3691740255781 4390.9163064090963 5509.9020480928411 6066.1343310010525 5319.9341156626224 5695.0763713541473 6131.3355599048118 5502.7833235577018 6326.3046847710439 5131.4102961988347 4392.6573197133112 5247.9281991893686 6252.2442823598649 6420.0247435819492 5869.3384537191914 5698.4671158005685 5886.0669667299608 4219.6150469321565 6029.1887379194131 4629.5932674685082 6479.2145654190235 5475.0971717333941 5815.0560258483374 5813.562195498037 5006.2135949620379 4701.9688821384598 5125.7759886185504 6068.3937676376991 5758.5214499952053 6092.2814968092753
leaf_weight=2100 3178 3954 1610 2134 2119 4171 3454 1532 723 1395 1164 883 2524 2262 3941 1765 5499 1073 2037 2584 1741 1226 2972 2399 3510 1998 1135 2652 2203 1347 772
leaf_count=2100 3178 3954 1610 2134 2119 4171 3454 1532 723 1395 1164 883 2524 2262 3941 1765 5499 1073 2037 2584 1741 1226 2972 2399 3510 1998 1135 2652 2203 1347 772
internal_value=5583.3 5828.37 4953.63 5176.65 5659.72 5454.68 5857.68 5735.43 6126.31 6021.9 4517.96 4812.74 4971.83 6039.39 6297.16 5672.61 5606.4 6144.56 4391.77 5862.34 4816.19 6247.38 5593.34 5932.81 5904.99 5141.13 4519.53 5244.47 6168.39 5985.53 5880.12
internal_weight=0 51888 20169 13340 33133 16276 16857 10077 18755 11641 6829 2047 9441 6780 7114 3899 9453 3173 4782 6817 4919 4824 6426 4518 6094 4522 2745 6823 3598 3651 2119
internal_count=72057 51888 20169 13340 33133 16276 16857 10077 18755 11641 6829 2047 9441 6780 7114 3899 9453 3173 4782 6817 4919 4824 6426 4518 6094 4522 2745 6823 3598 3651 2119
is_linear=0
shrinkage=1


Tree=18
num_leaves=32
num_cat=0
split_feature=0 1 0 4 4 0 1 4 1 4 4 0 4 4 4 4 4 1 0 4 1 4 1 1 1 0 4 0 1 1 4
split_gain=1.1113e+10 2.6073e+09 1.95973e+09 1.35513e+09 1.3449e+09 5.19114e+08 3.74449e+08 3.58117e+08 3.34569e+08 4.18835e+08 2.54017e+08 2.74028e+08 2.48763e+08 1.53801e+08 1.33379e+08 1.24804e+08 1.11425e+08 1.08332e+08 1.05177e+08 1.04557e+08 9.38301e+07 8.83437e+07 7.73025e+07 7.09306e+07 6.91993e+07 6.51568e+07 6.44091e+07 6.11152e+07 5.68155e+07 5.61149e+07 5.46667e+07
threshold=17.880754187703136 16.327779976410437 18.676456697285179 15.916282176971437 15.345208168029787 17.310652582913107 16.773907466482324 15.840272426605226 15.932935263426915 15.138983249664308 15.916282176971437 19.421173037145362 15.331180095672609 15.620263099670412 14.750471115112306 16.375535011291507 15.070601463317873 15.59938607148294 19.164501714362931 14.683363914489748 17.600058808922771 15.384684085845947 17.020861145506572 16.550870917501715 16.104561645671367 18.236293792724613 15.354926109313967 17.622865825478566 16.133639423042876 17.063917563201311 16.164961814880375
decision_type=2 2 2 2 2 2 2 2 2 2 2 2 2 2 2 2 2 2 2 2 2 2 2 2 2 2 2 2 2 2 2
left_child=1 8 3 12 5 16 13 22 14 19 18 -12 20 23 17 -5 -3 -1 26 -10 -2 28 -8 -6 -21 -14 -4 -7 -11 -9 -31
right_child=2 4 10 15 6 27 7 29 9 21 11 -13 25 -15 -16 -17 -18 -19 -20 24 -22 -23 -24 -25 -26 -27 -28 -29 -30 30 -32
leaf_value=6276.6413884079611 4918.4172115203983 5478.3691740255781 4390.9163064090963 5509.9020480928411 6066.1343310010525 5319.9341156626224 5695.0763713541473 6131.3355599048118 5502.7833235577018 6326.3046847710439 5131.4102961988347 4392.6573197133112 5247.9281991893686 6252.2442823598649 6420.0247435819492 5869.3384537191914 5698.4671158005685 5886.0669667299608 4219.6150469321565 6029.1887379194131 4629.5932674685082 6479.2145654190235 5475.0971717333941 5815.0560258483374 5813.562195498037 5006.2135949620379 4701.9688821384598 5125.7759886185504 6068.3937676376991 5758.5214499952053 6092.2814968092753
leaf_weight=2100 3178 3954 1610 2134 2119 4171 3454 1532 723 1395 1164 883 2524 2262 3941 1765 5499 1073 2037 2584 1741 1226 2972 2399 3510 1998 1135 2652 2203 1347 772
leaf_count=2100 3178 3954 1610 2134 2119 4171 3454 1532 723 1395 1164 883 2524 2262 3941 1765 5499 1073 2037 2584 1741 1226 2972 2399 3510 1998 1135 2652 2203 1347 772
internal_value=5583.3 5828.37 4953.63 5176.65 5659.72 5454.68 5857.68 5735.43 6126.31 6021.9 4517.96 4812.74 4971.83 6039.39 6297.16 5672.61 5606.4 6144.56 4391.77 5862.34 4816.19 6247.38 5593.34 5932.81 5904.99 5141.13 4519.53 5244.47 6168.39 5985.53 5880.12
internal_weight=0 51888 20169 13340 33133 16276 16857 10077 18755 11641 6829 2047 9441 6780 7114 3899 9453 3173 4782 6817 4919 4824 6426 4518 6094 4522 2745 6823 3598 3651 2119
internal_count=72057 51888 20169 13340 33133 16276 16857 10077 18755 11641 6829 2047 9441 6780 7114 3899 9453 3173 4782 6817 4919 4824 6426 4518 6094 4522 2745 6823 3598 3651 2119
is_linear=0
shrinkage=1


Tree=19
num_leaves=32
num_cat=0
split_feature=0 1 0 4 4 0 1 4 1 4 4 0 4 4 4 4 4 1 0 4 1 4 1 1 1 0 4 0 1 1 4
split_gain=1.1113e+10 2.6073e+09 1.95973e+09 1.35513e+09 1.3449e+09 5.19114e+08 3.74449e+08 3.58117e+08 3.34569e+08 4.18835e+08 2.54017e+08 2.74028e+08 2.48763e+08 1.53801e+08 1.33379e+08 1.24804e+08 1.11425e+08 1.08332e+08 1.05177e+08 1.04557e+08 9.38301e+07 8.83437e+07 7.73025e+07 7.09306e+07 6.91993e+07 6.51568e+07 6.44091e+07 6.11152e+07 5.68155e+07 5.61149e+07 5.46667e+07
threshold=17.880754187703136 16.327779976410437 18.676456697285179 15.916282176971437 15.345208168029787 17.310652582913107 16.773907466482324 15.840272426605226 15.932935263426915 15.138983249664308 15.916282176971437 19.421173037145362 15.331180095672609 15.620263099670412 14.750471115112306 16.375535011291507 15.070601463317873 15.59938607148294 19.164501714362931 14.683363914489748 17.600058808922771 15.384684085845947 17.020861145506572 16.550870917501715 16.104561645671367 18.236293792724613 15.354926109313967 17.622865825478566 16.133639423042876 17.063917563201311 16.164961814880375
decision_type=2 2 2 2 2 2 2 2 2 2 2 2 2 2 2 2 2 2 2 2 2 2 2 2 2 2 2 2 2 2 2
left_child=1 8 3 12 5 16 13 22 14 19 18 -12 20 23 17 -5 -3 -1 26 -10 -2 28 -8 -6 -21 -14 -4 -7 -11 -9 -31
right_child=2 4 10 15 6 27 7 29 9 21 11 -13 25 -15 -16 -17 -18 -19 -20 24 -22 -23 -24 -25 -26 -27 -28 -29 -30 30 -32
leaf_value=6276.6413884079611 4918.4172115203983 5478.3691740255781 4390.9163064090963 5509.9020480928411 6066.1343310010525 5319.9341156626224 5695.0763713541473 6131.3355599048118 5502.7833235577018 6326.3046847710439 5131.4102961988347 4392.6573197133112 5247.9281991893686 6252.2442823598649 6420.0247435819492 5869.3384537191914 5698.4671158005685 5886.0669667299608 4219.6150469321565 6029.1887379194131 4629.5932674685082 6479.2145654190235 5475.0971717333941 5815.0560258483374 5813.562195498037 5006.2135949620379 4701.9688821384598 5125.7759886185504 6068.3937676376991 5758.5214499952053 6092.2814968092753
leaf_weight=2100 3178 3954 1610 2134 2119 4171 3454 1532 723 1395 1164 883 2524 2262 3941 1765 5499 1073 2037 2584 1741 1226 2972 2399 3510 1998 1135 2652 2203 1347 772
leaf_count=2100 3178 3954 1610 2134 2119 4171 3454 1532 723 1395 1164 883 2524 2262 3941 1765 5499 1073 2037 2584 1741 1226 2972 2399 3510 1998 1135 2652 2203 1347 772
internal_value=5583.3 5828.37 4953.63 5176.65 5659.72 5454.68 5857.68 5735.43 6126.31 6021.9 4517.96 4812.74 4971.83 6039.39 6297.16 5672.61 5606.4 6144.56 4391.77 5862.34 4816.19 6247.38 5593.34 5932.81 5904.99 5141.13 4519.53 5244.47 6168.39 5985.53 5880.12
internal_weight=0 51888 20169 13340 33133 16276 16857 10077 18755 11641 6829 2047 9441 6780 7114 3899 9453 3173 4782 6817 4919 4824 6426 4518 6094 4522 2745 6823 3598 3651 2119
internal_count=72057 51888 20169 13340 33133 16276 16857 10077 18755 11641 6829 2047 9441 6780 7114 3899 9453 3173 4782 6817 4919 4824 6426 4518 6094 4522 2745 6823 3598 3651 2119
is_linear=0
shrinkage=1


end of trees

feature_importances:
IMAG=300
VMAG=190
UMAG=130

parameters:
[boosting: rf]
[objective: regression]
[metric: l2]
[tree_learner: serial]
[device_type: cpu]
[data: ]
[valid: ]
[num_iterations: 20]
[learning_rate: 0.05]
[num_leaves: 32]
[num_threads: 0]
[deterministic: 0]
[force_col_wise: 0]
[force_row_wise: 0]
[histogram_pool_size: -1]
[max_depth: -1]
[min_data_in_leaf: 20]
[min_sum_hessian_in_leaf: 0.001]
[bagging_fraction: 0.8]
[pos_bagging_fraction: 1]
[neg_bagging_fraction: 1]
[bagging_freq: 5]
[bagging_seed: 3]
[feature_fraction: 0.9]
[feature_fraction_bynode: 1]
[feature_fraction_seed: 2]
[extra_trees: 0]
[extra_seed: 6]
[early_stopping_round: 0]
[first_metric_only: 0]
[max_delta_step: 0]
[lambda_l1: 0]
[lambda_l2: 0]
[linear_lambda: 0]
[min_gain_to_split: 0]
[drop_rate: 0.1]
[max_drop: 50]
[skip_drop: 0.5]
[xgboost_dart_mode: 0]
[uniform_drop: 0]
[drop_seed: 4]
[top_rate: 0.2]
[other_rate: 0.1]
[min_data_per_group: 100]
[max_cat_threshold: 32]
[cat_l2: 10]
[cat_smooth: 10]
[max_cat_to_onehot: 4]
[top_k: 20]
[monotone_constraints: ]
[monotone_constraints_method: basic]
[monotone_penalty: 0]
[feature_contri: ]
[forcedsplits_filename: ]
[refit_decay_rate: 0.9]
[cegb_tradeoff: 1]
[cegb_penalty_split: 0]
[cegb_penalty_feature_lazy: ]
[cegb_penalty_feature_coupled: ]
[path_smooth: 0]
[interaction_constraints: ]
[verbosity: 0]
[saved_feature_importance_type: 0]
[linear_tree: 0]
[max_bin: 255]
[max_bin_by_feature: ]
[min_data_in_bin: 3]
[bin_construct_sample_cnt: 200000]
[data_random_seed: 1]
[is_enable_sparse: 1]
[enable_bundle: 1]
[use_missing: 1]
[zero_as_missing: 0]
[feature_pre_filter: 1]
[pre_partition: 0]
[two_round: 0]
[header: 0]
[label_column: ]
[weight_column: ]
[group_column: ]
[ignore_column: ]
[categorical_feature: ]
[forcedbins_filename: ]
[precise_float_parser: 0]
[objective_seed: 5]
[num_class: 1]
[is_unbalance: 0]
[scale_pos_weight: 1]
[sigmoid: 1]
[boost_from_average: 1]
[reg_sqrt: 0]
[alpha: 0.9]
[fair_c: 1]
[poisson_max_delta_step: 0.7]
[tweedie_variance_power: 1.5]
[lambdarank_truncation_level: 30]
[lambdarank_norm: 1]
[label_gain: ]
[eval_at: ]
[multi_error_top_k: 1]
[auc_mu_weights: ]
[num_machines: 1]
[local_listen_port: 12400]
[time_out: 120]
[machine_list_filename: ]
[machines: ]
[gpu_platform_id: -1]
[gpu_device_id: -1]
[gpu_use_dp: 0]
[num_gpu: 1]

end of parameters

pandas_categorical:[]
